{
  "nbformat": 4,
  "nbformat_minor": 0,
  "metadata": {
    "colab": {
      "name": "Untitled0.ipynb",
      "provenance": [],
      "collapsed_sections": [],
      "mount_file_id": "1WaR-bPOM5j6FO_d7rzYBeNZ4__4s3G6X",
      "authorship_tag": "ABX9TyO4cBduofOHTvc1xkeHZ9sH",
      "include_colab_link": true
    },
    "kernelspec": {
      "name": "python3",
      "display_name": "Python 3"
    }
  },
  "cells": [
    {
      "cell_type": "markdown",
      "metadata": {
        "id": "view-in-github",
        "colab_type": "text"
      },
      "source": [
        "<a href=\"https://colab.research.google.com/github/mshubham1/-66DaysOfMachineLearningandDeepLearning/blob/main/Word%20Embedding\" target=\"_parent\"><img src=\"https://colab.research.google.com/assets/colab-badge.svg\" alt=\"Open In Colab\"/></a>"
      ]
    },
    {
      "cell_type": "code",
      "metadata": {
        "id": "ogpp0tJbP6XP"
      },
      "source": [
        "sent=[  'the glass of milk',\n",
        "     'the glass of juice',\n",
        "     'the cup of tea',\n",
        "    'I am a good boy',\n",
        "     'I am a good developer',\n",
        "     'understand the meaning of words',\n",
        "     'your videos are good',]"
      ],
      "execution_count": null,
      "outputs": []
    },
    {
      "cell_type": "code",
      "metadata": {
        "id": "2os5to2uP_Im"
      },
      "source": [
        "##tensorflow >2.0\n",
        "from tensorflow.keras.preprocessing.text import one_hot"
      ],
      "execution_count": null,
      "outputs": []
    },
    {
      "cell_type": "code",
      "metadata": {
        "id": "VZAibIP4RLgT"
      },
      "source": [
        "### Vocabulary size\n",
        "voc_size=10000"
      ],
      "execution_count": null,
      "outputs": []
    },
    {
      "cell_type": "code",
      "metadata": {
        "colab": {
          "base_uri": "https://localhost:8080/"
        },
        "id": "JCr_bHjQmpeW",
        "outputId": "5d0112f2-e046-4849-ef94-dbb151ab7f52"
      },
      "source": [
        "\n",
        "onehot_repr=[one_hot(words,voc_size)for words in sent] \n",
        "print(onehot_repr)"
      ],
      "execution_count": null,
      "outputs": [
        {
          "output_type": "stream",
          "name": "stdout",
          "text": [
            "[[7218, 6231, 6487, 5700], [7218, 6231, 6487, 9814], [7218, 571, 6487, 2872], [6810, 6386, 2753, 123, 9477], [6810, 6386, 2753, 123, 4], [1324, 7218, 1982, 6487, 1270], [5072, 8680, 2449, 123]]\n"
          ]
        }
      ]
    },
    {
      "cell_type": "code",
      "metadata": {
        "id": "I25Nutj4m3eD"
      },
      "source": [
        "from tensorflow.keras.layers import Embedding\n",
        "from tensorflow.keras.preprocessing.sequence import pad_sequences\n",
        "from tensorflow.keras.models import Sequential"
      ],
      "execution_count": null,
      "outputs": []
    },
    {
      "cell_type": "code",
      "metadata": {
        "id": "PxmafdiPnFFj"
      },
      "source": [
        "import numpy as np"
      ],
      "execution_count": null,
      "outputs": []
    },
    {
      "cell_type": "code",
      "metadata": {
        "colab": {
          "base_uri": "https://localhost:8080/"
        },
        "id": "h7DmsSjHnQ5j",
        "outputId": "70392bdb-f2e3-46fd-95b4-bec4241b4d54"
      },
      "source": [
        "sent_length=8\n",
        "embedded_docs=pad_sequences(onehot_repr,padding='pre',maxlen=sent_length)\n",
        "print(embedded_docs)"
      ],
      "execution_count": null,
      "outputs": [
        {
          "output_type": "stream",
          "name": "stdout",
          "text": [
            "[[   0    0    0    0 7218 6231 6487 5700]\n",
            " [   0    0    0    0 7218 6231 6487 9814]\n",
            " [   0    0    0    0 7218  571 6487 2872]\n",
            " [   0    0    0 6810 6386 2753  123 9477]\n",
            " [   0    0    0 6810 6386 2753  123    4]\n",
            " [   0    0    0 1324 7218 1982 6487 1270]\n",
            " [   0    0    0    0 5072 8680 2449  123]]\n"
          ]
        }
      ]
    },
    {
      "cell_type": "code",
      "metadata": {
        "id": "MwVW-tB1nZeb"
      },
      "source": [
        "dim=10"
      ],
      "execution_count": null,
      "outputs": []
    },
    {
      "cell_type": "code",
      "metadata": {
        "id": "dgHJQAmoncQ0"
      },
      "source": [
        "\n",
        "model=Sequential()\n",
        "model.add(Embedding(voc_size,10,input_length=sent_length))\n",
        "model.compile('adam','mse')"
      ],
      "execution_count": null,
      "outputs": []
    },
    {
      "cell_type": "code",
      "metadata": {
        "colab": {
          "base_uri": "https://localhost:8080/"
        },
        "id": "2vK32qILnohc",
        "outputId": "7e4b79df-9434-44ea-acba-f0fa019976fe"
      },
      "source": [
        "model.summary()\n"
      ],
      "execution_count": null,
      "outputs": [
        {
          "output_type": "stream",
          "name": "stdout",
          "text": [
            "Model: \"sequential\"\n",
            "_________________________________________________________________\n",
            "Layer (type)                 Output Shape              Param #   \n",
            "=================================================================\n",
            "embedding (Embedding)        (None, 8, 10)             100000    \n",
            "=================================================================\n",
            "Total params: 100,000\n",
            "Trainable params: 100,000\n",
            "Non-trainable params: 0\n",
            "_________________________________________________________________\n"
          ]
        }
      ]
    },
    {
      "cell_type": "code",
      "metadata": {
        "colab": {
          "base_uri": "https://localhost:8080/"
        },
        "id": "fMQoncqgnrYd",
        "outputId": "ec8a56ed-6b56-40cd-cf66-ae3c61d9fc72"
      },
      "source": [
        "\n",
        "print(model.predict(embedded_docs))"
      ],
      "execution_count": null,
      "outputs": [
        {
          "output_type": "stream",
          "name": "stdout",
          "text": [
            "[[[-0.04209032  0.00422068 -0.047892    0.01124167  0.02802161\n",
            "    0.0129197   0.01662261 -0.04781121  0.01851896  0.03760437]\n",
            "  [-0.04209032  0.00422068 -0.047892    0.01124167  0.02802161\n",
            "    0.0129197   0.01662261 -0.04781121  0.01851896  0.03760437]\n",
            "  [-0.04209032  0.00422068 -0.047892    0.01124167  0.02802161\n",
            "    0.0129197   0.01662261 -0.04781121  0.01851896  0.03760437]\n",
            "  [-0.04209032  0.00422068 -0.047892    0.01124167  0.02802161\n",
            "    0.0129197   0.01662261 -0.04781121  0.01851896  0.03760437]\n",
            "  [-0.0398301  -0.02747196  0.02440968 -0.04993067 -0.03914335\n",
            "   -0.03033875 -0.01403525 -0.02353892  0.03918261  0.02330104]\n",
            "  [-0.04975906 -0.03916902  0.00306837 -0.0188009  -0.00094477\n",
            "    0.02726009  0.04488194 -0.00924313  0.00121136 -0.00226256]\n",
            "  [-0.03970617 -0.02403026  0.02179295  0.00050474 -0.01075752\n",
            "   -0.04566326 -0.03419534  0.0494691   0.04202732  0.03376642]\n",
            "  [-0.01496291 -0.01633736  0.04254368  0.01699344  0.00235554\n",
            "   -0.02584868  0.01106632  0.04507554 -0.02386823 -0.04214363]]\n",
            "\n",
            " [[-0.04209032  0.00422068 -0.047892    0.01124167  0.02802161\n",
            "    0.0129197   0.01662261 -0.04781121  0.01851896  0.03760437]\n",
            "  [-0.04209032  0.00422068 -0.047892    0.01124167  0.02802161\n",
            "    0.0129197   0.01662261 -0.04781121  0.01851896  0.03760437]\n",
            "  [-0.04209032  0.00422068 -0.047892    0.01124167  0.02802161\n",
            "    0.0129197   0.01662261 -0.04781121  0.01851896  0.03760437]\n",
            "  [-0.04209032  0.00422068 -0.047892    0.01124167  0.02802161\n",
            "    0.0129197   0.01662261 -0.04781121  0.01851896  0.03760437]\n",
            "  [-0.0398301  -0.02747196  0.02440968 -0.04993067 -0.03914335\n",
            "   -0.03033875 -0.01403525 -0.02353892  0.03918261  0.02330104]\n",
            "  [-0.04975906 -0.03916902  0.00306837 -0.0188009  -0.00094477\n",
            "    0.02726009  0.04488194 -0.00924313  0.00121136 -0.00226256]\n",
            "  [-0.03970617 -0.02403026  0.02179295  0.00050474 -0.01075752\n",
            "   -0.04566326 -0.03419534  0.0494691   0.04202732  0.03376642]\n",
            "  [ 0.00106514  0.02861235 -0.01685433  0.01265787  0.04533631\n",
            "    0.0053036  -0.00589862  0.01674134  0.02131373 -0.01660576]]\n",
            "\n",
            " [[-0.04209032  0.00422068 -0.047892    0.01124167  0.02802161\n",
            "    0.0129197   0.01662261 -0.04781121  0.01851896  0.03760437]\n",
            "  [-0.04209032  0.00422068 -0.047892    0.01124167  0.02802161\n",
            "    0.0129197   0.01662261 -0.04781121  0.01851896  0.03760437]\n",
            "  [-0.04209032  0.00422068 -0.047892    0.01124167  0.02802161\n",
            "    0.0129197   0.01662261 -0.04781121  0.01851896  0.03760437]\n",
            "  [-0.04209032  0.00422068 -0.047892    0.01124167  0.02802161\n",
            "    0.0129197   0.01662261 -0.04781121  0.01851896  0.03760437]\n",
            "  [-0.0398301  -0.02747196  0.02440968 -0.04993067 -0.03914335\n",
            "   -0.03033875 -0.01403525 -0.02353892  0.03918261  0.02330104]\n",
            "  [-0.02156251  0.03936568  0.0205796  -0.02494509 -0.00345248\n",
            "    0.02314258  0.01670946 -0.01629812  0.00324836  0.03164281]\n",
            "  [-0.03970617 -0.02403026  0.02179295  0.00050474 -0.01075752\n",
            "   -0.04566326 -0.03419534  0.0494691   0.04202732  0.03376642]\n",
            "  [-0.00521631 -0.02081882  0.04934191  0.01539468  0.00582223\n",
            "   -0.02620076 -0.00690589  0.0396037  -0.04612362  0.01424818]]\n",
            "\n",
            " [[-0.04209032  0.00422068 -0.047892    0.01124167  0.02802161\n",
            "    0.0129197   0.01662261 -0.04781121  0.01851896  0.03760437]\n",
            "  [-0.04209032  0.00422068 -0.047892    0.01124167  0.02802161\n",
            "    0.0129197   0.01662261 -0.04781121  0.01851896  0.03760437]\n",
            "  [-0.04209032  0.00422068 -0.047892    0.01124167  0.02802161\n",
            "    0.0129197   0.01662261 -0.04781121  0.01851896  0.03760437]\n",
            "  [ 0.04335121 -0.02812177 -0.02939984  0.04938048  0.01440645\n",
            "   -0.02615091  0.02393893  0.0007372  -0.03110415  0.04434149]\n",
            "  [ 0.03312625  0.04480417 -0.00573706  0.04770417  0.01775431\n",
            "   -0.0350045   0.04385977  0.01601059 -0.00893761 -0.02194968]\n",
            "  [ 0.03324504  0.02488394  0.04972806  0.03976511 -0.01730128\n",
            "    0.01678939 -0.03472067 -0.01957563 -0.0026966  -0.00931734]\n",
            "  [ 0.00516872  0.00743292  0.00832664 -0.0353277  -0.02852973\n",
            "    0.00468432 -0.02868479  0.04582622  0.04333495  0.03773285]\n",
            "  [ 0.0413224  -0.01023617  0.03852287  0.02598165  0.0421179\n",
            "    0.02840692 -0.04600611  0.00809618 -0.04525959 -0.04961971]]\n",
            "\n",
            " [[-0.04209032  0.00422068 -0.047892    0.01124167  0.02802161\n",
            "    0.0129197   0.01662261 -0.04781121  0.01851896  0.03760437]\n",
            "  [-0.04209032  0.00422068 -0.047892    0.01124167  0.02802161\n",
            "    0.0129197   0.01662261 -0.04781121  0.01851896  0.03760437]\n",
            "  [-0.04209032  0.00422068 -0.047892    0.01124167  0.02802161\n",
            "    0.0129197   0.01662261 -0.04781121  0.01851896  0.03760437]\n",
            "  [ 0.04335121 -0.02812177 -0.02939984  0.04938048  0.01440645\n",
            "   -0.02615091  0.02393893  0.0007372  -0.03110415  0.04434149]\n",
            "  [ 0.03312625  0.04480417 -0.00573706  0.04770417  0.01775431\n",
            "   -0.0350045   0.04385977  0.01601059 -0.00893761 -0.02194968]\n",
            "  [ 0.03324504  0.02488394  0.04972806  0.03976511 -0.01730128\n",
            "    0.01678939 -0.03472067 -0.01957563 -0.0026966  -0.00931734]\n",
            "  [ 0.00516872  0.00743292  0.00832664 -0.0353277  -0.02852973\n",
            "    0.00468432 -0.02868479  0.04582622  0.04333495  0.03773285]\n",
            "  [ 0.04832181 -0.0439211   0.03158689  0.02907249 -0.01944308\n",
            "    0.01469275  0.0225226   0.02649579 -0.02892436  0.03005009]]\n",
            "\n",
            " [[-0.04209032  0.00422068 -0.047892    0.01124167  0.02802161\n",
            "    0.0129197   0.01662261 -0.04781121  0.01851896  0.03760437]\n",
            "  [-0.04209032  0.00422068 -0.047892    0.01124167  0.02802161\n",
            "    0.0129197   0.01662261 -0.04781121  0.01851896  0.03760437]\n",
            "  [-0.04209032  0.00422068 -0.047892    0.01124167  0.02802161\n",
            "    0.0129197   0.01662261 -0.04781121  0.01851896  0.03760437]\n",
            "  [ 0.01095587  0.01021685  0.03706774  0.01758957  0.02392504\n",
            "    0.04780121 -0.00081665 -0.01694468  0.02298203 -0.01994932]\n",
            "  [-0.0398301  -0.02747196  0.02440968 -0.04993067 -0.03914335\n",
            "   -0.03033875 -0.01403525 -0.02353892  0.03918261  0.02330104]\n",
            "  [ 0.03113368 -0.01915081 -0.03302919 -0.03812538 -0.02731868\n",
            "   -0.01582783  0.03520033  0.00869473 -0.04156351 -0.02367615]\n",
            "  [-0.03970617 -0.02403026  0.02179295  0.00050474 -0.01075752\n",
            "   -0.04566326 -0.03419534  0.0494691   0.04202732  0.03376642]\n",
            "  [-0.00576358  0.02589643  0.04898823  0.00534834  0.03706651\n",
            "   -0.00579523 -0.01827729  0.02600605  0.0206718  -0.04272441]]\n",
            "\n",
            " [[-0.04209032  0.00422068 -0.047892    0.01124167  0.02802161\n",
            "    0.0129197   0.01662261 -0.04781121  0.01851896  0.03760437]\n",
            "  [-0.04209032  0.00422068 -0.047892    0.01124167  0.02802161\n",
            "    0.0129197   0.01662261 -0.04781121  0.01851896  0.03760437]\n",
            "  [-0.04209032  0.00422068 -0.047892    0.01124167  0.02802161\n",
            "    0.0129197   0.01662261 -0.04781121  0.01851896  0.03760437]\n",
            "  [-0.04209032  0.00422068 -0.047892    0.01124167  0.02802161\n",
            "    0.0129197   0.01662261 -0.04781121  0.01851896  0.03760437]\n",
            "  [ 0.00810141 -0.04528628  0.02587419  0.01280377 -0.03066071\n",
            "   -0.00034542  0.04514878 -0.00412043  0.02522862 -0.03120148]\n",
            "  [ 0.00910187  0.01062044 -0.04299591 -0.03410745  0.00416953\n",
            "   -0.04302435 -0.02673876  0.02844999  0.0320092   0.00857561]\n",
            "  [-0.00252012  0.02216585  0.00471855 -0.03099172 -0.04974092\n",
            "   -0.00925072 -0.02153729  0.03716307 -0.02529756  0.02433945]\n",
            "  [ 0.00516872  0.00743292  0.00832664 -0.0353277  -0.02852973\n",
            "    0.00468432 -0.02868479  0.04582622  0.04333495  0.03773285]]]\n"
          ]
        }
      ]
    },
    {
      "cell_type": "code",
      "metadata": {
        "colab": {
          "base_uri": "https://localhost:8080/"
        },
        "id": "ZqPeel82ny7Q",
        "outputId": "20fb23e8-b833-4e4d-fb87-fb162a26f032"
      },
      "source": [
        "embedded_docs[0]"
      ],
      "execution_count": null,
      "outputs": [
        {
          "output_type": "execute_result",
          "data": {
            "text/plain": [
              "array([   0,    0,    0,    0, 7218, 6231, 6487, 5700], dtype=int32)"
            ]
          },
          "metadata": {},
          "execution_count": 13
        }
      ]
    },
    {
      "cell_type": "code",
      "metadata": {
        "colab": {
          "base_uri": "https://localhost:8080/"
        },
        "id": "KUhTHqUDn6NN",
        "outputId": "fa940988-f5d9-4f8c-cd65-e700905563b3"
      },
      "source": [
        "print(model.predict(embedded_docs)[0])"
      ],
      "execution_count": null,
      "outputs": [
        {
          "output_type": "stream",
          "name": "stdout",
          "text": [
            "[[-0.04209032  0.00422068 -0.047892    0.01124167  0.02802161  0.0129197\n",
            "   0.01662261 -0.04781121  0.01851896  0.03760437]\n",
            " [-0.04209032  0.00422068 -0.047892    0.01124167  0.02802161  0.0129197\n",
            "   0.01662261 -0.04781121  0.01851896  0.03760437]\n",
            " [-0.04209032  0.00422068 -0.047892    0.01124167  0.02802161  0.0129197\n",
            "   0.01662261 -0.04781121  0.01851896  0.03760437]\n",
            " [-0.04209032  0.00422068 -0.047892    0.01124167  0.02802161  0.0129197\n",
            "   0.01662261 -0.04781121  0.01851896  0.03760437]\n",
            " [-0.0398301  -0.02747196  0.02440968 -0.04993067 -0.03914335 -0.03033875\n",
            "  -0.01403525 -0.02353892  0.03918261  0.02330104]\n",
            " [-0.04975906 -0.03916902  0.00306837 -0.0188009  -0.00094477  0.02726009\n",
            "   0.04488194 -0.00924313  0.00121136 -0.00226256]\n",
            " [-0.03970617 -0.02403026  0.02179295  0.00050474 -0.01075752 -0.04566326\n",
            "  -0.03419534  0.0494691   0.04202732  0.03376642]\n",
            " [-0.01496291 -0.01633736  0.04254368  0.01699344  0.00235554 -0.02584868\n",
            "   0.01106632  0.04507554 -0.02386823 -0.04214363]]\n"
          ]
        }
      ]
    }
  ]
}